100 99
10000.0 -976.2700785464949 -4303.78732744839 -2055.2675214328774 -897.6636599379381 1526.9040132219052 -2917.882261333123 1248.2557747461506 -7835.4600156415945 -9273.255210020587 2331.1696234844458 -5834.500761653291 -577.8983950580896 -1360.8912218786463 -8511.93276585322 8579.278836042262 8257.414005969185 9595.632051193486 -6652.39691095876 -5563.135018997009 -7400.242964936384 -9572.36684465528 -5983.171284334472 770.4127549413624 -5610.583525729109 7634.511482621336 -2798.420426550476 7132.9342518190715 -8893.37834099168 -436.96643500143364 1706.7612001895286 4708.887757907461 -5484.673788684333 876.9933556690285 -1368.6789773729706 9624.203991272898 -2352.7099415175417 -2241.914454448428 -2338.679937495139 -8874.961570292482 -3636.4059820696675 2809.84198852428 1259.36092401317 -3952.623918545298 8795.490567414603 -3335.334308913354 -3412.757392363188 5792.348778523182 7421.474046902934 3691.432981516323 2725.784581147548 -1403.9354083575927 1227.9697307535935 -9767.476761184524 7959.103785039439 5822.464878103307 6773.809642300075 -3062.166509307968 4934.167949204358 673.7845428738747 5111.488159967945 6820.608327089605 7792.497176713898 -3126.5917893054684 7236.3409730277235 6068.35276639893 2625.4965867807177 -6419.864596958701 8057.974484138775 -6758.898149976078 8078.0318421207385 -9529.189300267913 626.975967045968 -9535.221763806741 -2096.9103949009186 -4785.271587966034 9216.244154913587 4343.860748471809 7596.068775736621 4077.196049557101 7625.445620915119 3640.3364121204795 1714.7401097066013 8717.050073024313 -3849.442387400397 -1332.0290841315036 4692.210181211091 -464.9610693339928 8121.189784831166 -1518.929911123585 -8585.92395152428 3628.620950973527 -3348.2075992736336 7364.042751912157 -4326.544082371311 4211.878141055978 6336.172759857664 -1730.258696201663 9597.84907625013 -10000.0
-5000.0 488.13503927324746 2151.893663724195 1027.6337607164387 448.83182996896903 -763.4520066109526 1458.9411306665615 -624.1278873730753 3917.7300078207973 4636.627605010293 -1165.5848117422229 2917.2503808266456 288.9491975290448 680.4456109393232 4255.96638292661 -4289.639418021131 -4128.707002984593 -4797.816025596743 3326.19845547938 2781.5675094985045 3700.121482468192 4786.18342232764 2991.585642167236 -385.2063774706812 2805.2917628645546 -3817.255741310668 1399.210213275238 -3566.4671259095358 4446.68917049584 218.48321750071682 -853.3806000947643 -2354.4438789537303 2742.3368943421665 -438.49667783451423 684.3394886864853 -4812.101995636449 1176.3549707587708 1120.957227224214 1169.3399687475694 4437.480785146241 1818.2029910348338 -1404.92099426214 -629.680462006585 1976.311959272649 -4397.7452837073015 1667.667154456677 1706.378696181594 -2896.174389261591 -3710.737023451467 -1845.7164907581614 -1362.892290573774 701.9677041787963 -613.9848653767967 4883.738380592262 -3979.5518925197193 -2911.2324390516533 -3386.9048211500376 1531.083254653984 -2467.083974602179 -336.89227143693734 -2555.7440799839724 -3410.3041635448026 -3896.248588356949 1563.2958946527342 -3618.1704865138618 -3034.176383199465 -1312.7482933903589 3209.9322984793507 -4028.9872420693873 3379.449074988039 -4039.0159210603692 4764.594650133957 -313.487983522984 4767.610881903371 1048.4551974504593 2392.635793983017 -4608.122077456794 -2171.9303742359043 -3798.0343878683107 -2038.5980247785506 -3812.7228104575597 -1820.1682060602398 -857.3700548533006 -4358.5250365121565 1924.7211937001985 666.0145420657518 -2346.1050906055457 232.4805346669964 -4060.594892415583 759.4649555617925 4292.96197576214 -1814.3104754867636 1674.1037996368168 -3682.0213759560784 2163.2720411856553 -2105.939070527989 -3168.086379928832 865.1293481008315 -4798.924538125065 5000.0
-5000.0 3289.40029217363 -4953.045238074529 1778.1653679623014 -2299.9202680783515 2351.9402212259492 4621.885451174383 -2512.4685648004197 761.5733441783686 920.4193127183898 722.5190579087339 -2769.183673593817 4527.4901151698505 -528.7462138237261 3464.0867247112783 1994.792753175043 -2025.6304914486632 3137.9781970247723 -1034.9425915301535 3811.0319711116153 812.7287263585868 3817.353618548528 1925.3159007776585 2252.542798196405 13.243819267022445 4560.836347232238 1439.9019922963744 -761.4495144182029 1063.9321412792433 -4808.0680169066645 -1984.251833254507 1601.7353749268505 -2099.2239278955594 1180.1542899884153 -712.3129905423384 -3645.259357775498 -2017.1767404396924 699.6491070126485 908.7276124817326 743.2524884957884 1532.008198571336 1521.032700016889 -685.8156456602601 3965.465958510629 -1324.3812995210346 -641.3507473437321 3919.2335501567213 3061.939890460858 2038.885835403663 -3997.731126876989 4194.826137446735 2142.412995491114 4988.4700656786645 -3505.5169534200622 3681.2605736821424 -3375.070653236252 1155.5956428384416 -3761.800171505585 3480.0822932223437 3073.1895872501073 691.0073861459332 -928.1670277400035 -4308.33004544862 1974.2877314456364 -464.5731732193117 2220.555994703479 3663.8232592862914 4755.215050028859 3558.03342392611 -4882.85915814998 -1400.2193552163612 2299.9056242405804 -3283.703227385595 210.36606204129293 -4456.620116607463 -3000.0347510359993 -4814.78205539386 2936.977033574206 -2760.7531193961986 -1546.4831930309729 4280.812934655909 2044.1440192353275 -4681.610704686922 -3353.058435020873 1214.7840149976355 772.2858860416763 -2621.0717862549136 4342.139979247937 1139.6595596589596 356.3280302495832 899.0997635457097 2301.2202951676963 -1880.5500452039814 -1017.7893778390812 -2901.5625102487784 -3138.0699411966384 4443.723899839335 2395.5079504928754 5000.0
