100 99
0.0 30.11962620929877 51.14958297721829 36.3323687533286 29.68976831128298 17.948338900288764 41.71792052941624 19.14825674606603 79.52590849238752 92.86459159764642 14.702739835941925 62.68285359269967 27.972983614043123 32.26746233883982 85.67291368186751 0.5046121564293581 0.7591514866480902 0.04087835950549696 69.32558072002722 60.55279290488276 75.69211380970451 95.76938597544033 63.865441076093504 21.296320178537268 60.92257950344126 1.398883981462578 40.94989135368612 2.0550165010980663 89.23993628396336 27.232567091336634 17.194452447670454 6.998967189605386 59.9437805854919 20.80731255812676 32.311715422640525 0.03530566004380519 38.14736072481658 37.46611737750834 38.060755649986255 89.06604357000452 46.48789202695636 12.924593057497122 19.099692864166972 48.66892855309058 0.36271074329679853 44.45778528262039 44.97551521659834 4.426082200398839 1.6621990226987833 9.949504456675006 13.228552489967688 32.51243569949802 19.2371287611438 97.68828437599257 1.0413143400600866 4.362949923670107 2.602076056028993 42.655048479221676 6.415663591717094 21.744573688184563 5.974387002533397 2.527132852442989 1.2182671787040287 43.07685300076543 1.909452804341337 3.8644624923707367 13.59582514789571 67.40298834561445 0.9428657760640147 70.21516680031789 0.9234903999754503 95.3473086814247 21.963394880583465 95.40622234027715 36.58381027556548 54.6510639824789 0.15356830617677955 7.997977808169473 1.444721332747106 8.769901658845502 1.4096271248077963 10.111330237750154 17.16138286242615 0.4114901287817303 47.95176361048071 32.10372079090056 7.043158190109798 27.37885254566902 0.8824819561556896 33.171436574344405 86.359142282961 10.14861774659337 44.543661528326595 1.737067653436709 51.3124663360321 8.3755886634964 3.3559075114022527 34.399742269953684 0.04043134136821865 100.0
0.0 5.4881350392732475 7.151893663724195 6.027633760716439 5.448831829968968 4.236547993389047 6.458941130666561 4.375872112626925 8.917730007820797 9.636627605010293 3.8344151882577773 7.917250380826646 5.288949197529044 5.680445610939323 9.25596638292661 0.7103605819788694 0.8712929970154071 0.2021839744032572 8.32619845547938 7.781567509498505 8.700121482468191 9.78618342232764 7.9915856421672355 4.6147936225293185 7.805291762864554 1.1827442586893322 6.399210213275238 1.433532874090464 9.446689170495839 5.218483217500717 4.146619399905235 2.64555612104627 7.742336894342166 4.5615033221654855 5.684339488686485 0.18789800436355142 6.176354970758771 6.120957227224214 6.169339968747569 9.437480785146242 6.818202991034834 3.59507900573786 4.3703195379934145 6.976311959272649 0.6022547162926983 6.667667154456677 6.706378696181594 2.103825610738409 1.289262976548533 3.1542835092418384 3.637107709426226 5.701967704178797 4.386015134623204 9.883738380592263 1.0204481074802807 2.088767560948347 1.6130951788499626 6.531083254653984 2.532916025397821 4.663107728563062 2.4442559200160274 1.5896958364551972 1.1037514116430513 6.563295894652734 1.381829513486138 1.965823616800535 3.687251706609641 8.209932298479352 0.9710127579306127 8.379449074988038 0.9609840789396307 9.764594650133958 4.686512016477016 9.767610881903371 6.04845519745046 7.3926357939830165 0.39187792254320675 2.828069625764096 1.201965612131689 2.9614019752214493 1.1872771895424405 3.1798317939397602 4.1426299451467 0.6414749634878436 6.924721193700199 5.666014542065751 2.653894909394454 5.232480534666997 0.9394051075844168 5.759464955561793 9.292961975762141 3.1856895245132364 6.674103799636817 1.3179786240439217 7.163272041185655 2.894060929472011 1.8319136200711683 5.865129348100831 0.20107546187493552 10.0
0.0 8.289400292173632 0.046954761925470656 6.778165367962301 2.7000797319216483 7.351940221225949 9.621885451174382 2.48753143519958 5.761573344178369 5.920419312718391 5.722519057908734 2.230816326406183 9.52749011516985 4.471253786176273 8.464086724711278 6.994792753175043 2.9743695085513364 8.137978197024772 3.9650574084698462 8.811031971111616 5.812728726358587 8.817353618548529 6.925315900777659 7.252542798196405 5.013243819267022 9.56083634723224 6.439901992296374 4.238550485581797 6.063932141279244 0.19193198309333526 3.0157481667454933 6.60173537492685 2.9007760721044407 6.180154289988415 4.287687009457661 1.3547406422245023 2.9828232595603077 5.6996491070126485 5.908727612481732 5.743252488495788 6.5320081985713365 6.521032700016889 4.31418435433974 8.96546595851063 3.6756187004789656 4.358649252656268 8.91923355015672 8.061939890460858 7.038885835403663 1.0022688731230112 9.194826137446736 7.142412995491114 9.988470065678666 1.4944830465799375 8.681260573682142 1.6249293467637482 6.155595642838442 1.2381998284944151 8.480082293222344 8.073189587250107 5.691007386145933 4.071832972259997 0.6916699545513805 6.974287731445637 4.5354268267806885 7.22055599470348 8.663823259286293 9.755215050028859 8.55803342392611 0.11714084185001972 3.599780644783639 7.29990562424058 1.7162967726144052 5.210366062041293 0.5433798833925363 1.9999652489640007 0.18521794460613972 7.936977033574206 2.239246880603801 3.453516806969027 9.28081293465591 7.044144019235327 0.31838929531307847 1.6469415649791275 6.214784014997635 5.772285886041676 2.3789282137450862 9.342139979247937 6.13965955965896 5.356328030249583 5.89909976354571 7.301220295167696 3.1194499547960186 3.9822106221609186 2.0984374897512215 1.8619300588033616 9.443723899839336 7.395507950492876 10.0
